-0.9690864289938531,0.13067577113417675,0.030442986073106987,
-0.17149304634359178,0.353734569396268,-0.957857639726387,
0.724205327306188,0.14184547322987773,-0.7510921565149143,
1.0356149322011419,-0.9506122527224553,-0.7194155035328434,
0.1847696325585287,-0.689541606022717,-0.6306604378017856,
0.7731158156402884,0.7322348755881397,0.6135001839871281,
-0.008559727720508692,-0.5970887328670124,0.003638740499073481,
0.7029995001071572,-0.9795734362393975,-0.023523739206740467,
0.4994011909918459,0.49148655948118186,0.10596310943253594,
-0.2074573963107695,0.2563479268749489,-0.3013619977410252,
-0.9911042755411882,0.1415583464502357,-0.5681666290371253,

-0.7874200742360303,0.2459845635060328,-0.4079193195826019,0.22497679318354585,-0.5868960511516366,-0.43079315827896075,-0.047803312893039906,0.6785743784016991,0.663468163353012,0.521620173103133,0.031202914227638094,
-0.5697221526067437,0.03864969461194825,-0.09362051636271067,0.12437842048103145,-1.198758803175933,-0.5863758256439856,0.050960097698216605,-0.29526953041475584,0.3292183922627666,0.3474469999805682,0.19446333304919922,
0.8162743667004412,0.0643967067235729,-0.29037018504628853,-0.8450700015341708,0.5879617781183825,0.7123429199720723,0.6192747315913715,0.7559159087469073,0.08731223418090213,-0.0653810616972007,-0.5239327733714795,
-0.14893508600962013,1.0816181503245066,-0.23551567482309793,-0.47448075188857575,-0.11276151623305437,0.0477002463566849,0.3430388753153209,0.45454195840886547,0.3038460093133878,-0.23868893555310156,-0.4970546225279412,

